%YAML:1.0
---
opencv_ml_ann_mlp:
   format: 3
   layer_sizes: [ 8, 17, 5 ]
   activation_function: SIGMOID_SYM
   f_param1: 6.6666666666666663e-01
   f_param2: 1.7159000000000000e+00
   min_val: -9.4999999999999996e-01
   max_val: 9.4999999999999996e-01
   min_val1: -9.7999999999999998e-01
   max_val1: 9.7999999999999998e-01
   training_params:
      train_method: BACKPROP
      dw_scale: 1.0000000000000000e-03
      moment_scale: 0.
      term_criteria:
         epsilon: 1.0000000000000000e-04
         iterations: 300
   input_scale:
      - 1.0494938369720479e-01
      - -1.7977454532710375e+00
      - 2.3302834789725485e-01
      - -1.5697233282900676e+00
      - 4.0205753223371348e+00
      - -6.5908717477443746e-01
      - 9.6480329419621105e-02
      - -1.6691786132641242e+00
      - 1.5731026335933568e-01
      - -1.5643007478476652e+00
      - 2.1007382847092224e-01
      - -1.0152317982551102e+00
      - 3.9510763996002107e-01
      - -2.2555472267824976e+00
      - 4.4462627605491214e-03
      - -1.3268166791940119e+00
   output_scale:
      - 5.2631578947368418e-01
      - 4.9999999999999994e-01
      - 5.2631578947368418e-01
      - 4.9999999999999994e-01
      - 5.2631578947368418e-01
      - 4.9999999999999994e-01
      - 5.2631578947368418e-01
      - 4.9999999999999994e-01
      - 5.2631578947368418e-01
      - 4.9999999999999994e-01
   inv_output_scale:
      - 1.8999999999999999e+00
      - -9.4999999999999996e-01
      - 1.8999999999999999e+00
      - -9.4999999999999996e-01
      - 1.8999999999999999e+00
      - -9.4999999999999996e-01
      - 1.8999999999999999e+00
      - -9.4999999999999996e-01
      - 1.8999999999999999e+00
      - -9.4999999999999996e-01
   weights:
      -
         - -6.1255432432623949e-02
         - 2.0756467520980290e-01
         - 3.0929628846275554e-02
         - -3.9738547289647086e-01
         - -3.1906111039600105e-01
         - 5.1715337575421094e-01
         - 6.1576579351845351e-02
         - 3.5441093072448487e-01
         - 3.3519125740169758e-01
         - 3.8964796411198510e-01
         - 1.9695229183963014e-01
         - 5.9534072862908773e-02
         - -1.4314382730265254e-01
         - 1.4156043886943159e-01
         - -3.3708007963291903e-01
         - 4.8439050616277085e-01
         - -5.8611155265181195e-02
         - 6.7124912219151955e-02
         - 1.5323859730274386e-01
         - -1.4432798756160522e-02
         - 2.3427342526800735e-01
         - -1.1943979808138072e-01
         - -2.8270670687224070e-01
         - 5.3815780474832919e-01
         - -2.8557382110832247e-01
         - -5.2669955480119213e-01
         - -2.2935318888659151e-01
         - -8.8898059741638655e-02
         - 1.4144910225471199e-01
         - 3.1039287937420612e-01
         - 3.5654548898199322e-02
         - 1.1065933148163443e-01
         - 2.0465520816283175e-01
         - -5.9737770953060088e-01
         - 1.0493020631422957e-01
         - 1.9303232826389488e-01
         - 1.1301016593550338e-01
         - 4.8467514010834462e-02
         - 9.1670182769249653e-02
         - -4.9602431296981658e-01
         - -4.3280486433010185e-01
         - -5.4310227668304838e-02
         - -1.5175903534877300e-01
         - -3.8357002288306685e-01
         - 2.2783567064663079e-01
         - 8.1672433066711778e-02
         - 3.0068324522041934e-03
         - -1.5561848159743860e-02
         - 1.1527071067302756e-01
         - 3.6995702017684567e-01
         - -9.0558449931059770e-02
         - -4.7162189847775332e-01
         - -2.6859870228777222e-01
         - 7.8563798314170208e-02
         - -3.1928738043387511e-01
         - -6.5365613804571732e-02
         - 5.1792026502790678e-01
         - 5.2158384480440712e-01
         - -2.8814229602267986e-02
         - -1.2461887934392506e-01
         - -5.3145897836721223e-01
         - -3.9450608716428487e-01
         - 2.4394791346528111e-01
         - 3.8880425460633095e-01
         - 2.8130007599966284e-01
         - -1.2698180239300177e-02
         - 2.4256043175067796e-01
         - 6.3763491703035413e-02
         - -4.8859601160225981e-02
         - -1.1384188856264799e-01
         - -4.7770900324759759e-02
         - 1.3713423394854096e-01
         - -2.5297131823691432e-01
         - -3.4195776733390394e-02
         - 8.1577135494404429e-02
         - -6.6354086275142582e-02
         - 4.8476553165440021e-02
         - 1.7061462699761689e-02
         - -2.6579361009940849e-02
         - 5.3608941182313997e-02
         - -1.6551318145541166e-01
         - -4.7729527354500492e-02
         - 1.0197447531193886e-02
         - -9.7094045070609411e-02
         - -6.3726310064692399e-02
         - -1.5292385529178062e-01
         - 1.8759722198485781e-01
         - 7.1708610881785857e-03
         - 9.3729343831941495e-02
         - -1.6160330800574033e-01
         - -1.1642438615385989e-01
         - -5.3795010297549772e-01
         - -1.5179894035665428e-01
         - -6.4052903952452084e-02
         - -4.6927350612690510e-01
         - 2.2187095801006823e-01
         - -4.0987142727111854e-02
         - 5.7368384937771209e-02
         - 9.5663025474292909e-02
         - 2.3084375948061164e-01
         - 3.4717774418004588e-01
         - 2.2989104032982063e-01
         - 6.7213606531845799e-02
         - -1.5722286550566461e-01
         - 1.5993359320911765e-01
         - 9.4412508683558799e-02
         - 2.3782470469960529e-01
         - 1.3005061175091678e-01
         - -1.3034842413049152e-01
         - -1.3487048851958233e-01
         - 2.5281983443350992e-01
         - -1.6089749398955755e-01
         - -1.1310271872446943e-01
         - -1.6679670608668104e-01
         - 5.8097080743646105e-02
         - 1.3273583896466709e-01
         - 1.2893802704079471e-01
         - 2.5037547886602157e-02
         - 4.4817860651063640e-01
         - 5.5914636658341718e-02
         - 1.0482289839141544e-01
         - -1.1039615610590386e-01
         - 1.0814435794828685e-01
         - -9.7855940398120123e-02
         - -1.0544622616249395e-01
         - -2.2178392463724958e-01
         - -2.8380407021913551e-01
         - -1.6867378514575634e-02
         - -5.5674375718534208e-01
         - 4.3638085609959643e-01
         - -1.4661445371816392e-02
         - -1.5848435197741237e-01
         - -1.1337451203473153e-01
         - 1.0120432417609250e-01
         - 1.9744160957130921e-01
         - -4.4234026239506993e-02
         - -2.5575671910170944e-01
         - -1.4230432545526961e-01
         - 4.0234728630174188e-01
         - 4.6911570489130744e-01
         - 1.9692947137576378e-01
         - -3.2659892470963470e-01
         - -1.0233621834548501e-01
         - 2.0325244420829733e-01
         - -2.1909566652559725e-01
         - -2.8670109270550366e-02
         - 2.5758927356607564e-01
         - -1.6327387124680523e-01
         - -6.1989443437610980e-02
         - -2.7353780478931183e-01
         - -5.0741249732560534e-01
         - 4.6405939224247672e-01
         - 5.7143008561057168e-02
      -
         - 8.2301439155375855e-01
         - 6.4271304751175740e-01
         - 9.2238927634923318e-01
         - -5.7886402194290076e-01
         - 8.3889198652432129e-01
         - 8.0155037071436364e-01
         - 2.2839324798627051e-02
         - 7.1075451207975016e-01
         - -9.6196980550303963e-03
         - -2.9740569976422371e-01
         - -1.2520198311067743e-01
         - -9.2256283396982408e-01
         - 9.9082763243691821e-02
         - 1.9933911215593937e-02
         - -1.0446695731708402e+00
         - -3.9962266409612068e-01
         - -3.1816579427371477e-01
         - -1.1285878717146351e+00
         - -7.0972096216650082e-01
         - 2.1125406084551746e-01
         - -4.4191687487882486e-01
         - 7.6457350270674829e-01
         - -9.5639005017890377e-01
         - 1.2768272240488527e-02
         - 9.8813182430263727e-02
         - 4.3503551365580329e-01
         - -1.3856184754026105e-01
         - 1.1615745309084413e+00
         - 1.0109658009388474e+00
         - -9.4867695467374080e-01
         - -5.2131867699456369e-01
         - -1.0000832793319923e+00
         - 5.7816597436011485e-01
         - 1.7034289929665156e-01
         - 8.0286318190564099e-01
         - -6.9382622175748054e-01
         - 4.6812167506243285e-01
         - 1.0520017057288197e-01
         - -7.7926575607137250e-01
         - 1.3227194030362358e-01
         - 3.6937711546394592e-01
         - 8.1975918329301922e-01
         - 6.5190948446742703e-01
         - 2.5131787624157270e-01
         - -4.8138839012664519e-01
         - -1.0418342440960329e+00
         - 1.0105367324670658e+00
         - 4.7127882694851109e-01
         - -8.7754155384297094e-01
         - 6.7662641729954409e-01
         - 5.2769533071338937e-01
         - -1.3926968567180054e-01
         - 6.9385966654303854e-01
         - -1.0623460482447604e+00
         - -6.6506501872554202e-01
         - 3.4375309265466047e-01
         - -1.0236404019253308e-01
         - 5.6612276263694483e-01
         - 7.1258103523106298e-01
         - -4.1614727279783786e-01
         - -2.2843926173857135e-01
         - -6.6137075692527747e-02
         - -3.7343416702786525e-01
         - 7.1485982389266500e-01
         - 1.8775750513336648e-01
         - 3.7179249408281417e-01
         - -2.8192312273746856e-01
         - 6.2510312398492351e-01
         - 5.4622481784710541e-01
         - -4.7759775703639762e-02
         - 8.9879018972719260e-01
         - 7.2823286739256388e-01
         - -1.0871849113950843e-01
         - 7.7837914210300563e-01
         - 8.9614635519008834e-01
         - -8.7394462534484310e-02
         - -1.0576345887464982e+00
         - 2.9869782104106057e-01
         - -6.9371747783986215e-01
         - -8.4041355020185593e-01
         - -2.1689893302677934e-01
         - 5.8558082322439087e-01
         - -7.3396796024817001e-01
         - 5.1652071037764868e-01
         - -9.4655777747500658e-01
         - -3.1391407039164543e-01
         - -8.8596262087034094e-01
         - -5.1270597744435353e-01
         - -1.0274918562681590e-01
         - -7.2178726934506987e-01
