%YAML:1.0
---
opencv_ml_ann_mlp:
   format: 3
   layer_sizes: [ 8, 17, 5 ]
   activation_function: SIGMOID_SYM
   f_param1: 6.6666666666666663e-01
   f_param2: 1.7159000000000000e+00
   min_val: -9.4999999999999996e-01
   max_val: 9.4999999999999996e-01
   min_val1: -9.7999999999999998e-01
   max_val1: 9.7999999999999998e-01
   training_params:
      train_method: BACKPROP
      dw_scale: 1.0000000000000000e-03
      moment_scale: 0.
      term_criteria:
         epsilon: 1.0000000000000000e-04
         iterations: 300
   input_scale:
      - 8.0414994507313070e-02
      - -1.0316769116011379e+00
      - 1.0449846939473258e-01
      - -1.0407249296942815e+00
      - 1.2496409843008685e-02
      - -3.8503651585307214e-01
      - 4.4745468986991575e-02
      - -1.5274798013251976e+00
      - 6.7637568785789623e-02
      - -8.7846406053602599e-01
      - 7.0892809490811212e-02
      - -6.5680957115421623e-01
      - 3.0957136112706074e-01
      - -1.3143346593869913e+00
      - 4.2682781477219552e-04
      - -1.9642251469287428e-01
   output_scale:
      - 5.2631578947368418e-01
      - 4.9999999999999994e-01
      - 5.2631578947368418e-01
      - 4.9999999999999994e-01
      - 5.2631578947368418e-01
      - 4.9999999999999994e-01
      - 5.2631578947368418e-01
      - 4.9999999999999994e-01
      - 5.2631578947368418e-01
      - 4.9999999999999994e-01
   inv_output_scale:
      - 1.8999999999999999e+00
      - -9.4999999999999996e-01
      - 1.8999999999999999e+00
      - -9.4999999999999996e-01
      - 1.8999999999999999e+00
      - -9.4999999999999996e-01
      - 1.8999999999999999e+00
      - -9.4999999999999996e-01
      - 1.8999999999999999e+00
      - -9.4999999999999996e-01
   weights:
      -
         - -1.7067538087854717e-01
         - 2.6820648068745606e-01
         - 6.9591032952065396e-02
         - -3.0530116751215614e-01
         - -3.4553088000169119e-01
         - 4.4569847396783446e-01
         - 1.9885723366162503e-01
         - 1.7254120352364288e-01
         - 1.2135599765821484e-01
         - 1.4935526473633567e+00
         - -1.4912971289123789e-01
         - 4.2852303627070702e-02
         - -5.0363048155968503e-02
         - 2.5901434419099223e-01
         - -3.6355002069172387e-01
         - 3.7144488032254763e-01
         - -2.4406347139141873e-01
         - 3.5106266092403887e-01
         - 4.6525406903569455e-01
         - -1.2676593865537031e-01
         - 3.6605288578026024e-01
         - 2.7578885607650433e-01
         - -3.2817604408771511e-01
         - -1.3656362713050194e-01
         - -1.3568709881324922e-01
         - -2.6666983847197923e-01
         - -5.8380197094638464e-01
         - 4.0400761847013700e-01
         - 9.8402484739608193e-02
         - 1.7345092767010448e-01
         - -1.4569363489593420e-01
         - -2.1509083996868249e-02
         - 1.9541664190197708e-01
         - -5.7416043481118917e-01
         - 3.4557489417049267e-02
         - 1.4065744030778163e-01
         - 4.6613205952915376e-02
         - -2.9915779912512025e-01
         - 3.5730708653983456e-01
         - -3.3249664167007564e-01
         - -2.9621142823413021e-01
         - 1.2400537154328498e-01
         - -1.1276054618831598e-02
         - 1.1147526003894788e-01
         - 1.6338229264037310e-01
         - 1.5508038622489873e-01
         - 1.8468085412193727e-01
         - 1.1203138766522411e-01
         - 9.5111794031972380e-04
         - 1.6497882747164438e-01
         - -2.5710247853559166e-02
         - -2.7094054637624021e-01
         - -4.8282899318482836e-01
         - -4.7849193263140057e-02
         - -3.9181617572944916e-01
         - -2.0551040195732367e-01
         - 3.6624903446537815e-01
         - 3.9343252368049908e-01
         - 8.9232294970115242e-02
         - -6.6126751921566251e-02
         - -9.7074674860362120e-01
         - -5.1072939361065044e-02
         - 1.2593211358777950e-01
         - 2.5347484416917532e-01
         - 3.6512994444282310e-01
         - 1.3671003187419045e-01
         - 4.1303508393361138e-01
         - 2.0143854478783371e-01
         - 9.1844991921029767e-02
         - -6.9218506681322312e-01
         - -2.4705228818958730e-01
         - 2.7724084299515939e-01
         - -4.0708820825443420e-01
         - -2.0020192626552019e-01
         - 3.9378158228806315e-01
         - 1.3040269812620691e-02
         - -6.1282009112513247e-02
         - -4.6249238135584630e-01
         - 3.5633331352909070e-01
         - -1.0447576304754266e-01
         - -2.3953501143844946e-01
         - -5.3560179154645407e-02
         - 2.0583258474519125e-01
         - 1.2507242076808001e-01
         - 4.7079244682219530e-02
         - 1.8724222094738624e-01
         - -6.9745633863235165e-02
         - -2.7340657620639064e-01
         - -8.1524239160824241e-03
         - -9.3857672233595105e-02
         - -1.4137106459952484e-01
         - -6.8197213812891211e-01
         - 2.9192700330930432e-01
         - 2.2941387306052011e-01
         - -2.3823893479555605e-01
         - 8.8034258490800366e-01
         - -8.2844081900310895e-02
         - -1.2443991708251427e-01
         - -7.7217753648178206e-02
         - 1.8939798636176280e-01
         - 3.6378756546943319e-01
         - 5.4106734020545788e-01
         - 2.7292586759794069e-01
         - -1.0231722737702402e+00
         - 1.6999497248473669e-01
         - 6.4852996293953413e-02
         - 1.9563219650105226e-01
         - 1.4063968629738469e-01
         - 8.4792621272777952e-02
         - -1.6312130260287886e-02
         - 1.7997533207324648e-01
         - 6.7056914274484986e-02
         - -2.1740952588176093e-01
         - -2.4476473203682092e-01
         - -4.1767942256912403e-02
         - 1.4440842845744095e-01
         - 1.5068547482187225e-01
         - 9.4284897783584523e-03
         - 6.2227338292770207e-01
         - 8.1519514420906949e-02
         - 1.7611051748159690e-01
         - -1.2780967115144565e-01
         - 1.1400250514285115e-01
         - -1.3397163813633420e-01
         - 2.4184906875943492e-03
         - -4.2364913701420920e-01
         - -2.8085057661590734e-01
         - -3.6345308298159525e-02
         - -4.8401929580221503e-01
         - 7.2947085463171546e-01
         - 2.0522534997853323e-02
         - -2.7987463991197598e-01
         - -2.1069131252087223e-01
         - 1.2975200373767862e-01
         - 8.1626336800038862e-02
         - -1.4968390529251223e-02
         - -4.8481792769923732e-02
         - -2.1469085685252373e-01
         - 3.3265660114379636e-01
         - 4.9264283539338477e-01
         - 2.0809806604028550e-01
         - -4.4061815902123747e-01
         - -3.0201515134550549e-01
         - 2.1639182106400753e-01
         - -1.6125728977720136e-01
         - -6.1449162450162831e-01
         - 6.0516809096551716e-01
         - -1.3751463623332599e-01
         - -1.4691109590496759e-01
         - -3.3184938663639124e-01
         - -3.9165073308288662e-01
         - 4.5368747265813514e-01
         - -2.1137093873080819e-02
      -
         - 8.1186167593996450e-01
         - 6.6770152736621424e-01
         - 9.1669444579433945e-01
         - -5.8173044662712392e-01
         - 7.9568869089653005e-01
         - 1.1926521561207748e+00
         - -7.3051744780930863e-02
         - 5.9930288657885877e-01
         - -3.1550952878918775e-01
         - -5.2313622643994817e-01
         - -1.1106754740789908e-01
         - -9.8259688170409631e-01
         - 9.4464110851540523e-02
         - 4.9845118679406768e-02
         - -1.0150464430689454e+00
         - -3.0440246341244809e-01
         - -2.2485192513150656e-01
         - -1.1825563174845481e+00
         - -8.3263072665425064e-01
         - 1.8546471065288778e-01
         - -5.2620597966424443e-01
         - 8.5992162887204671e-01
         - -9.0000834434774646e-01
         - 2.9097728829250505e-02
         - 1.9467053142375811e-02
         - 5.5028393072638515e-01
         - -3.3846779657375564e-01
         - 1.0607452651450218e+00
         - 1.0354167659446210e+00
         - -8.1919940517627743e-01
         - -5.4178242129322962e-01
         - -1.0385322853689696e+00
         - 5.5298207732149141e-01
         - 1.6282661492299402e-01
         - 8.2242172107344436e-01
         - -6.3060866466599674e-01
         - 4.6093005157743200e-01
         - 1.0047089165437512e-01
         - -7.6592845801845588e-01
         - 1.1353990443763876e-01
         - 3.9804923152361854e-01
         - 6.4397982408271903e-01
         - 6.3713692677655653e-01
         - 3.0550984524797897e-01
         - -3.8681444322550962e-01
         - -1.2607419308410737e+00
         - 1.2715963335056506e+00
         - 3.7674057916153558e-01
         - -7.9908434817673935e-01
         - 5.1448681561349507e-01
         - 8.5308753821588212e-01
         - -1.4936298404485970e-01
         - 6.0335872399659662e-01
         - -1.2402086650636355e+00
         - -6.3800828370817086e-01
         - 3.8374930594445339e-01
         - -8.0285579294706658e-02
         - 5.1026042134136618e-01
         - 7.3216848986150340e-01
         - -4.3844267043080382e-01
         - -3.5572643365692824e-01
         - 9.2124723388733981e-02
         - -2.7586416627935073e-01
         - 6.6626264241007971e-01
         - 1.2485477875778843e-01
         - 2.2403816977618152e-01
         - -3.5234766541698148e-01
         - 7.2130785666882069e-01
         - 5.8919245428791422e-01
         - 1.2319897316648908e-02
         - 7.3519161604936234e-01
         - 7.7739111193828458e-01
         - 2.5392522131028630e-02
         - 7.1953557279674274e-01
         - 9.3302154349036615e-01
         - -6.3899791136794393e-02
         - -9.7392104190988615e-01
         - 2.9964344791583247e-01
         - -7.9213344866745505e-01
         - -7.7330491701469628e-01
         - -4.2012666049891340e-01
         - 5.8088982187212190e-01
         - -6.1237253927107593e-01
         - 6.4644396140243399e-01
         - -8.3784201458663243e-01
         - 1.1645146715580382e-01
         - -7.7422961396349177e-01
         - -6.3479010689390658e-01
         - -3.1767445585833387e-01
         - -7.8000481034429692e-01
